FANN_FLO_2.1
num_layers=3
learning_rate=0.700000
connection_rate=1.000000
network_type=0
learning_momentum=0.000000
training_algorithm=2
train_error_function=1
train_stop_function=0
cascade_output_change_fraction=0.010000
quickprop_decay=-0.000100
quickprop_mu=1.750000
rprop_increase_factor=1.200000
rprop_decrease_factor=0.500000
rprop_delta_min=0.000000
rprop_delta_max=50.000000
rprop_delta_zero=0.100000
cascade_output_stagnation_epochs=12
cascade_candidate_change_fraction=0.010000
cascade_candidate_stagnation_epochs=12
cascade_max_out_epochs=150
cascade_max_cand_epochs=150
cascade_num_candidate_groups=2
bit_fail_limit=3.49999999999999977796e-01
cascade_candidate_limit=1.00000000000000000000e+03
cascade_weight_multiplier=4.00000000000000022204e-01
cascade_activation_functions_count=10
cascade_activation_functions=3 5 7 8 10 11 14 15 16 17 
cascade_activation_steepnesses_count=4
cascade_activation_steepnesses=2.50000000000000000000e-01 5.00000000000000000000e-01 7.50000000000000000000e-01 1.00000000000000000000e+00 
layer_sizes=9 7 2 
scale_included=0
neurons (num_inputs, activation_function, activation_steepness)=(0, 0, 0.00000000000000000000e+00) (0, 0, 0.00000000000000000000e+00) (0, 0, 0.00000000000000000000e+00) (0, 0, 0.00000000000000000000e+00) (0, 0, 0.00000000000000000000e+00) (0, 0, 0.00000000000000000000e+00) (0, 0, 0.00000000000000000000e+00) (0, 0, 0.00000000000000000000e+00) (0, 0, 0.00000000000000000000e+00) (9, 4, 5.00000000000000000000e-01) (9, 4, 5.00000000000000000000e-01) (9, 4, 5.00000000000000000000e-01) (9, 4, 5.00000000000000000000e-01) (9, 4, 5.00000000000000000000e-01) (9, 4, 5.00000000000000000000e-01) (0, 0, 0.00000000000000000000e+00) (7, 4, 5.00000000000000000000e-01) (0, 0, 0.00000000000000000000e+00) 
connections (connected_to_neuron, weight)=(0, 1.40432174227643031372e+03) (1, -1.49438504646790397601e+03) (2, 1.13915697302639068766e+03) (3, 1.44692377734055207839e+03) (4, -1.49881427555527307049e+03) (5, -4.72544965479414088350e+02) (6, 2.95312131008581502556e+02) (7, -4.54791825447790529324e+02) (8, -4.94804007053694050455e+00) (0, -5.03147278618046698284e+02) (1, -1.49774152231009247771e+03) (2, 1.46307768403256682177e+03) (3, 1.24492094217282101454e+03) (4, -1.28227525532273489262e+03) (5, -1.77763660513644680350e+02) (6, 1.47639338815463156607e+03) (7, -1.50000000000000000000e+03) (8, -2.07257318007977346497e+02) (0, 8.13915716094282970516e+00) (1, -1.52581859898749572224e+00) (2, -4.01141264733062996584e+00) (3, -1.03858997372394501468e+01) (4, -3.68803752354847258488e+00) (5, 3.71089261821316629408e+00) (6, -5.83656797955185768778e-01) (7, -1.29096814940689963436e+01) (8, 1.21236676384634538550e+01) (0, -5.95008195554700932917e+02) (1, -1.28984609055091982555e+03) (2, 1.28296791964578528678e+03) (3, 8.16006654208330701294e+02) (4, -1.29186177195042682797e+03) (5, -1.22979627008130455579e+03) (6, 1.49537555154112419586e+03) (7, -3.93332879484425916417e+02) (8, -2.08424712640504949945e+01) (0, -3.39047543411006131464e+02) (1, -2.16577923097104241279e+00) (2, 3.74243543714133409139e+02) (3, 1.34227025407563829162e+01) (4, 1.83258395335001324611e+02) (5, 7.29292732875237845747e+01) (6, 6.05166722391488178801e+01) (7, -1.98336337490315798959e+02) (8, 1.20091262814810484372e+01) (0, -3.17642719703603574999e+02) (1, -1.45445473618759319834e+03) (2, 1.46783082016778121215e+03) (3, 1.46280227502952106988e+03) (4, -1.07472721441269072784e+03) (5, -7.69723937025335999351e+02) (6, 1.34786627813549830535e+03) (7, -5.63098583926751302897e+02) (8, -3.95790570344012682114e+00) (9, -5.21314209274417628137e+00) (10, 1.50000000000000000000e+03) (11, 1.99147990710145919024e+01) (12, -3.73526315986741419550e+00) (13, 6.78300220543497101033e+00) (14, 4.56449180699969758734e+00) (15, -1.65839231109661326968e+01) 
